8.090428239443732    8.380058628960334    5.020091735312553    -14.397101822856241    -17.071913276655508    9.186394388908301
-0.1671963525698014    1.1172421627386653    0.33486947350470414    -2.319729148084001    -6.475948740602843    3.7421003721586223
-2.2731529178434378    -0.102671485838496    0.4537855740940524    -0.8044302594218611    0.3040718654006333    14.090316764392343
0.7347847484325122    -0.11906011266892827    0.5296412245069815    -0.7873827672305191    -8.183209479506184    19.93734033530724
0.8834816153856607    1.2251926680457392    -1.0832978069949208    -2.5309649713183546    5.794728176001668    -4.490870950510305
1.0987976744196002    -0.007935943993801715    -0.4632826071039507    6.77066839651942    -0.29736000143993974    -9.303581518544044
-3.169274731113433    2.4231416635698664    -1.657060949542922    -0.3330457750612621    -0.12066918077707946    4.537398402281197
-0.8010704834881681    1.6148870347214517    0.19403450393197733    -3.321887984896871    0.4081139463465724    7.490733475105985
-1.0001908413278842    0.05318061433865036    0.8613256935720836    2.502654424102288    0.15864407204721667    -15.060117060744613
-0.5829823937750067    -0.9838763096008571    0.8602757840818646    2.6426946335282673    -8.7417881139398    4.93709354733044
3.0815657122693194    -3.2230833566150343    -8.54975118943067    5.90927167684748    1.3475675399220632    -12.599181795091408
-1.1852308184545843    -0.12218696722879256    0.4190451842457979    -6.2765486115612035    0.3517265041989493    9.751490135998571
-2.825933948108334    2.742915844812    -3.0557934136136606    -10.671958888791472    2.497877515111482    -3.647155020999714
9.009806182745665    -0.6630745676380976    -30.34394331823532    -0.21950912023247807    -1.1526124889240315    8.81435756680694
-2.2153880179499668    1.8848660336393435    -10.915274643813078    -0.8983571530662984    0.13686692821919838    32.132376559972904
1.318096483430884    -1.134763894221502    1.892454546703349    -1.1241752332335666    0.30073200769249564    -3.6517733491998405
0.28142696531496453    -0.6695687880716721    -0.43169351764122477    1.5162355391490043    0.5318123617096174    1.7924315790007093
-0.5108765434190753    0.6921934543063518    1.0900040128412352    -3.517046365329276    0.017326724964773634    -5.63001228286578
1.2708883121883905    -1.0309734821194532    2.5502412918182427    2.3983876696059525    0.3592169275262057    -11.635980859069686
