8.098608291947762    8.39125318308784    5.028921619989706    -14.391993060672535    -17.063358123575323    9.188118196013557
-0.16526345400282677    1.1256113302948973    0.33325887584168995    -2.3175577905114575    -6.4765136843142805    3.7415063544059866
-2.286821421512561    -0.0942993258397831    0.4409986303218557    -0.8156058172243921    0.2965191676496283    14.088236591772285
0.7778711604171217    -0.11105353714480966    0.5139823075577792    -0.7985248789072252    -8.169656677352089    19.941792146111432
0.8827553420895873    1.231121133463941    -1.0757893734180046    -2.5282623790322116    5.797620088931133    -4.49105792901498
1.096461042753221    -0.008454848065843965    -0.4670039652122854    6.774058410733951    -0.29840391408920497    -9.303243036523828
-3.1783085389379293    2.4326204694220057    -1.6483495806314765    -0.33555207067813086    -0.12497219561939407    4.53600821586077
-0.7947313496832075    1.6228119707837663    0.20780883294249816    -3.320656009641807    0.40262875564792355    7.491296779836481
-0.9993548872160329    0.05512680456822847    0.8648420693025778    2.5040428691538357    0.1601896577904257    -15.05960882343329
-0.5886293830115198    -0.9885208371284793    0.8581694908487241    2.640356865296498    -8.74383796966273    4.9345093451365605
3.0796841157813253    -3.2246375159762257    -8.551190475348053    5.907959161966715    1.3470547776674506    -12.599620017669755
-1.1865226452122548    -0.1210066607768107    0.4195637647345672    -6.272115773896859    0.3533829568044878    9.752959842107456
-2.8142843104924227    2.7513923302291468    -3.053949545966886    -10.671504808003743    2.512194949128407    -3.643207247309064
9.005246860946167    -0.6679522846711015    -30.34539888110852    -0.22015245460656574    -1.1547795521273467    8.813448757515435
-2.2041313097986612    1.8901550089281445    -10.915864431945193    -0.896648174088435    0.1418949020037111    32.13326632285551
1.315483007537164    -1.127024672912211    1.89749196706816    -1.1254406297960327    0.29363010052732086    -3.654916936666028
0.2870356456572733    -0.6721772587909423    -0.43699206509277905    1.516980008247459    0.5300804507936047    1.7898107851317033
-0.5067746561451738    0.6907356299110352    1.0966487646467622    -3.5171029118929433    0.02044570572458548    -5.6294271191446
1.2814437108894061    -1.030108604688738    2.540557334676612    2.390806902239078    0.35955336437084673    -11.639286880642944
