8.26015183104618    8.60982297950985    5.25016489823017    -14.2731210567486    -16.885656798803    9.23353020602822
-0.150249237853036    1.32066762691965    0.384607741039565    -2.27714239589003    -6.47936309107316    3.73826453375126
-2.67825209824031    -0.117977785204206    0.275036832277385    -0.95666879437454    0.0994249620199049    14.0320711953685
1.44425101469723    0.292326247116375    0.80180806680619    -0.528933469003413    -7.67467470812128    20.109126059478
0.771296241231489    1.22965315545107    -0.901706634736268    -2.56008127701385    5.82501209906915    -4.5243494082873
0.928164156048834    0.199075835562603    -0.524565802832017    6.8717741000942    -0.384719149779763    -9.29122613443763
-3.20831516439606    2.75518562114748    -1.27139214725437    -0.409771941561305    -0.170867727811332    4.54353417170998
-0.604674147435367    1.78497745699523    0.577959103086795    -3.1973180885975    0.339470130001933    7.5332477196266
-0.90895177309629    0.243335417357425    1.20379479582927    2.64155405624931    0.291963857626434    -15.0092147789801
-0.648397358773346    -1.00132495162942    0.99616849671108    2.62168556091724    -8.76426518885219    4.90649496516193
2.95258115780883    -3.30012356083546    -8.6257125333559    5.80105958803367    1.25643386938809    -12.6327759230898
-1.40791392366206    0.039824962009318    0.368691191052124    -6.17029795752107    0.298869985295266    9.77158377531832
-2.45914850930021    3.00530295513749    -2.98986988452526    -10.6542833208646    2.88732268643866    -3.53919888345221
8.94547436272912    -0.744567086766041    -30.3642947881702    -0.242821032719929    -1.18491929076657    8.80131585664304
-2.15183509407023    1.81684441133262    -11.0623336954915    -1.01398275964855    0.0768486455871469    32.1002567756921
1.42750356721937    -0.98838182021026    1.83726364998907    -1.37132067064469    0.13884594586947    -3.70308687539133
0.239136034250261    -0.843527387885029    -0.383038203695138    1.51600112409201    0.535350132994632    1.73549283819843
-0.339801418227673    0.870134066971253    1.79104623383074    -3.41089646878327    0.241664593865992    -5.5466569359112
1.3796430402377    -1.2670354573861    2.15979793863074    2.06498280986844    0.0756151228355238    -11.7676309505298
