8.094363951060386    8.385594675718384    5.024383739347398    -14.394618697800512    -17.067726051997106    9.187249352402572
-0.1663451128427623    1.121189882889647    0.33380526355688905    -2.318718277732686    -6.4762828953156815    3.7417499680912703
-2.279639433013187    -0.0983846215858412    0.44758214654573963    -0.809790708773346    0.30023721438460466    14.089348657839144
0.7558503704148021    -0.11553107316247362    0.5218450228534978    -0.7930570929488342    -8.176647734972152    19.939492815684066
0.882902613242891    1.2280795602761034    -1.0799872154815051    -2.5297562994607854    5.796035412652577    -4.491023425410589
1.097556122995319    -0.008984232351834629    -0.46558015760051863    6.772168912870092    -0.2981801521696945    -9.303490147164698
-3.1733430359230463    2.4280955872041954    -1.6529106157005735    -0.33404001696617436    -0.12271942422980833    4.536828206193941
-0.7976610994007481    1.619021179242807    0.20133227397522588    -3.3209033359361837    0.40568195848858224    7.491151050733802
-0.9997937981359973    0.05413141396344433    0.8629938965783523    2.503312808147305    0.1593889854569507    -15.059875082860303
-0.5856808571195258    -0.9861655507883839    0.8591574863679833    2.6417168149089774    -8.742767980576131    4.93586075123006
3.0809163194021454    -3.2237227010824587    -8.550312257391793    5.908881148340858    1.347527781109334    -12.599318601492095
-1.186169014297319    -0.12258571689312853    0.4187271626871243    -6.274615215663207    0.3520246734311058    9.752067185197063
-2.8199784764066926    2.747243640320735    -3.054844675206267    -10.671730830604078    2.505218434557597    -3.6451258296811138
9.007619027324306    -0.6654577947056796    -30.34464584928874    -0.21980233246852213    -1.153741266053427    8.81391557601996
-2.2101716298913434    1.8872188533692968    -10.915734526347089    -0.8976186250855979    0.13921190420931692    32.13275296208829
1.316526209138151    -1.1313329577421307    1.8948748423287585    -1.1247157438291941    0.2971053289436061    -3.65333173859059
0.28450013441581834    -0.6710848944406423    -0.43432597667839257    1.516593597512024    0.5309356272080794    1.791154867307628
-0.5088508917107367    0.6912376068710564    1.0930757351590126    -3.5171335614536505    0.018794499802271415    -5.629749453748206
1.2759844149375703    -1.0307781389604176    2.5451145835184454    2.394578370105109    0.358985041853245    -11.637702338489381
